digraph Tree {
0 [label="age=middle_aged <= 0.5000\nentropy = 0.940285958671\nsamples = 14", shape="box"] ;
1 [label="student=yes <= 0.5000\nentropy = 1.0\nsamples = 10", shape="box"] ;
0 -> 1 ;
2 [label="age=youth <= 0.5000\nentropy = 0.721928094887\nsamples = 5", shape="box"] ;
1 -> 2 ;
3 [label="credit_rating=excellent <= 0.5000\nentropy = 1.0\nsamples = 2", shape="box"] ;
2 -> 3 ;
4 [label="entropy = 0.0000\nsamples = 1\nvalue = [ 0.  1.]", shape="box"] ;
3 -> 4 ;
5 [label="entropy = 0.0000\nsamples = 1\nvalue = [ 1.  0.]", shape="box"] ;
3 -> 5 ;
6 [label="entropy = 0.0000\nsamples = 3\nvalue = [ 3.  0.]", shape="box"] ;
2 -> 6 ;
7 [label="credit_rating=fair <= 0.5000\nentropy = 0.721928094887\nsamples = 5", shape="box"] ;
1 -> 7 ;
8 [label="income=medium <= 0.5000\nentropy = 1.0\nsamples = 2", shape="box"] ;
7 -> 8 ;
9 [label="entropy = 0.0000\nsamples = 1\nvalue = [ 1.  0.]", shape="box"] ;
8 -> 9 ;
10 [label="entropy = 0.0000\nsamples = 1\nvalue = [ 0.  1.]", shape="box"] ;
8 -> 10 ;
11 [label="entropy = 0.0000\nsamples = 3\nvalue = [ 0.  3.]", shape="box"] ;
7 -> 11 ;
12 [label="entropy = 0.0000\nsamples = 4\nvalue = [ 0.  4.]", shape="box"] ;
0 -> 12 ;
}